<?xml version="1.0"?>
<opencv_storage>
<cascade>
  <stageType>BOOST</stageType>
  <featureType>LBP</featureType>
  <height>31</height>
  <width>43</width>
  <stageParams>
    <boostType>GAB</boostType>
    <minHitRate>9.9800002574920654e-01</minHitRate>
    <maxFalseAlarm>5.0000000000000000e-01</maxFalseAlarm>
    <weightTrimRate>9.4999999999999996e-01</weightTrimRate>
    <maxDepth>1</maxDepth>
    <maxWeakCount>100</maxWeakCount></stageParams>
  <featureParams>
    <maxCatCount>256</maxCatCount>
    <featSize>1</featSize></featureParams>
  <stageNum>5</stageNum>
  <stages>
    <!-- stage 0 -->
    <_>
      <maxWeakCount>2</maxWeakCount>
      <stageThreshold>-7.8629791736602783e-02</stageThreshold>
      <weakClassifiers>
        <_>
          <internalNodes>
            0 -1 2 -14680065 -6579813 -551684609 -10751043 -73415937
            -7670853 -561250561 -4195381</internalNodes>
          <leafValues>
            -9.9785524606704712e-01 9.6279066801071167e-01</leafValues></_>
        <_>
          <internalNodes>
            0 -1 5 -8390657 -28365 1505351967 -4613313 -292828161
            -6582101 -1982620673 -4199637</internalNodes>
          <leafValues>
            -9.9448335170745850e-01 9.1922545433044434e-01</leafValues></_></weakClassifiers></_>
    <!-- stage 1 -->
    <_>
      <maxWeakCount>3</maxWeakCount>
      <stageThreshold>-1.1292628049850464e+00</stageThreshold>
      <weakClassifiers>
        <_>
          <internalNodes>
            0 -1 8 -1 -537135617 -134479905 -527373 -37748737 -67375217
            -2359329 -1</internalNodes>
          <leafValues>
            -9.9624663591384888e-01 9.3488371372222900e-01</leafValues></_>
        <_>
          <internalNodes>
            0 -1 1 -1 -33 -11153153 -536879233 -1 -11797873 -7603713
            -513</internalNodes>
          <leafValues>
            -9.8880147933959961e-01 8.9447635412216187e-01</leafValues></_>
        <_>
          <internalNodes>
            0 -1 7 -8193 -2087 -14157825 -2097165 -136336641 -4203265
            -134233857 -3841</internalNodes>
          <leafValues>
            -9.9098378419876099e-01 8.5578525066375732e-01</leafValues></_></weakClassifiers></_>
    <!-- stage 2 -->
    <_>
      <maxWeakCount>3</maxWeakCount>
      <stageThreshold>-1.2119888067245483e+00</stageThreshold>
      <weakClassifiers>
        <_>
          <internalNodes>
            0 -1 3 -1 -137 -1 -1 -1311233 -545 -263425 -1</internalNodes>
          <leafValues>
            -9.8719316720962524e-01 9.3908631801605225e-01</leafValues></_>
        <_>
          <internalNodes>
            0 -1 6 1937751551 2136989655 -4726785 -565793 -472137729 -65
            -84934657 -577</internalNodes>
          <leafValues>
            -9.8780161142349243e-01 7.5029158592224121e-01</leafValues></_>
        <_>
          <internalNodes>
            0 -1 4 -2049 -134236741 -557185 -1025 -262145 -5 -1 -1</internalNodes>
          <leafValues>
            -9.7508722543716431e-01 8.8529103994369507e-01</leafValues></_></weakClassifiers></_>
    <!-- stage 3 -->
    <_>
      <maxWeakCount>2</maxWeakCount>
      <stageThreshold>-1.3388092815876007e-01</stageThreshold>
      <weakClassifiers>
        <_>
          <internalNodes>
            0 -1 10 -2099201 -12592161 -34870273 -71841361 -14690305
            -22086213 -3409441 -4129</internalNodes>
          <leafValues>
            -9.8614442348480225e-01 9.6875000000000000e-01</leafValues></_>
        <_>
          <internalNodes>
            0 -1 9 -551553033 -2111521 -81682433 -56899081 -1 -1597
            -2097665 -1052809</internalNodes>
          <leafValues>
            -9.9835932254791260e-01 8.5226351022720337e-01</leafValues></_></weakClassifiers></_>
    <!-- stage 4 -->
    <_>
      <maxWeakCount>1</maxWeakCount>
      <stageThreshold>1.</stageThreshold>
      <weakClassifiers>
        <_>
          <internalNodes>
            0 -1 0 2098439 276824064 2 -2147483644 33280 0 536870912
            1090519040</internalNodes>
          <leafValues>
            -1. 1.</leafValues></_></weakClassifiers></_></stages>
  <features>
    <_>
      <rect>
        0 0 9 8</rect></_>
    <_>
      <rect>
        1 5 9 5</rect></_>
    <_>
      <rect>
        1 8 13 6</rect></_>
    <_>
      <rect>
        2 17 10 4</rect></_>
    <_>
      <rect>
        7 9 11 6</rect></_>
    <_>
      <rect>
        8 19 11 2</rect></_>
    <_>
      <rect>
        10 1 10 2</rect></_>
    <_>
      <rect>
        10 3 6 6</rect></_>
    <_>
      <rect>
        23 9 5 5</rect></_>
    <_>
      <rect>
        24 18 5 3</rect></_>
    <_>
      <rect>
        26 6 3 2</rect></_></features></cascade>
</opencv_storage>
